digraph Tree {
node [shape=box] ;
0 [label="X[4] <= 3.5\ngini = 0.7778\nsamples = 6\nvalue = [1, 1, 1, 2, 1]"] ;
1 [label="X[4] <= 1.5\ngini = 0.6667\nsamples = 3\nvalue = [1, 1, 1, 0, 0]"] ;
0 -> 1 [labeldistance=2.5, labelangle=45, headlabel="True"] ;
2 [label="gini = 0.0\nsamples = 1\nvalue = [1, 0, 0, 0, 0]"] ;
1 -> 2 ;
3 [label="X[2] <= 32.5\ngini = 0.5\nsamples = 2\nvalue = [0, 1, 1, 0, 0]"] ;
1 -> 3 ;
4 [label="gini = 0.0\nsamples = 1\nvalue = [0, 1, 0, 0, 0]"] ;
3 -> 4 ;
5 [label="gini = 0.0\nsamples = 1\nvalue = [0, 0, 1, 0, 0]"] ;
3 -> 5 ;
6 [label="X[1] <= 0.5\ngini = 0.4444\nsamples = 3\nvalue = [0, 0, 0, 2, 1]"] ;
0 -> 6 [labeldistance=2.5, labelangle=-45, headlabel="False"] ;
7 [label="gini = 0.0\nsamples = 1\nvalue = [0, 0, 0, 0, 1]"] ;
6 -> 7 ;
8 [label="gini = 0.0\nsamples = 2\nvalue = [0, 0, 0, 2, 0]"] ;
6 -> 8 ;
}